<?xml version="1.0"?>
<opencv_storage>
<cascade>
  <stageType>BOOST</stageType>
  <featureType>LBP</featureType>
  <height>24</height>
  <width>24</width>
  <stageParams>
    <boostType>GAB</boostType>
    <minHitRate>9.9500000476837158e-001</minHitRate>
    <maxFalseAlarm>5.0000000000000000e-001</maxFalseAlarm>
    <weightTrimRate>9.4999999999999996e-001</weightTrimRate>
    <maxDepth>1</maxDepth>
    <maxWeakCount>100</maxWeakCount></stageParams>
  <featureParams>
    <maxCatCount>256</maxCatCount>
    <featSize>1</featSize></featureParams>
  <stageNum>15</stageNum>
  <stages>
    <!-- stage 0 -->
    <_>
      <maxWeakCount>5</maxWeakCount>
      <stageThreshold>-1.4038609266281128e+000</stageThreshold>
      <weakClassifiers>
        <_>
          <internalNodes>
            0 -1 39 -135268402 -179845521 1359999431 -6827641 1401151439
            1669522095 -472389633 -1025</internalNodes>
          <leafValues>
            -9.0496891736984253e-001 2.4782608449459076e-001</leafValues></_>
        <_>
          <internalNodes>
            0 -1 2 -423114205 -312221409 17155091 -304353265 1095976454
            1073954979 1637830945 -526985</internalNodes>
          <leafValues>
            -7.6622903347015381e-001 4.3459346890449524e-001</leafValues></_>
        <_>
          <internalNodes>
            0 -1 48 -134742106 1628156875 -1243885334 -73402721
            2112348487 2005000655 1877606339 -671088753</internalNodes>
          <leafValues>
            -6.9578015804290771e-001 4.7612631320953369e-001</leafValues></_>
        <_>
          <internalNodes>
            0 -1 18 -1547686242 -1703429 -540694177 -541633187 419478527
            -1078372051 -1416875013 237243520</internalNodes>
          <leafValues>
            -7.1486204862594604e-001 4.8075172305107117e-001</leafValues></_>
        <_>
          <internalNodes>
            0 -1 12 -268960281 -1450191965 1375895654 -225516913
            1737474369 168284449 1990152768 -680036357</internalNodes>
          <leafValues>
            -6.4672225713729858e-001 5.7653450965881348e-001</leafValues></_></weakClassifiers></_>
    <!-- stage 1 -->
    <_>
      <maxWeakCount>3</maxWeakCount>
      <stageThreshold>-1.4824949502944946e+000</stageThreshold>
      <weakClassifiers>
        <_>
          <internalNodes>
            0 -1 32 1120401903 -171472993 -138291201 -527393 -627050033
            -653541125 -69469953 -1</internalNodes>
          <leafValues>
            -8.7848728895187378e-001 7.4889868497848511e-002</leafValues></_>
        <_>
          <internalNodes>
            0 -1 31 310393021 -1076519660 -577512993 -2154535
            -1460881153 -1617000053 -1077235969 -1631059704</internalNodes>
          <leafValues>
            -7.4325293302536011e-001 3.3442321419715881e-001</leafValues></_>
        <_>
          <internalNodes>
            0 -1 23 556797732 484408287 1331628543 -2682417 311929839
            2022820601 867680191 263588655</internalNodes>
          <leafValues>
            -9.3843084573745728e-001 2.6493409276008606e-001</leafValues></_></weakClassifiers></_>
    <!-- stage 2 -->
    <_>
      <maxWeakCount>5</maxWeakCount>
      <stageThreshold>-1.5201917886734009e+000</stageThreshold>
      <weakClassifiers>
        <_>
          <internalNodes>
            0 -1 45 -754974737 -170917937 2023748495 -44044289
            -223872049 -144996963 -103809089 -1</internalNodes>
          <leafValues>
            -8.5289704799652100e-001 1.1747851222753525e-001</leafValues></_>
        <_>
          <internalNodes>
            0 -1 59 -1895297755 -135309867 1974458367 -435747 -15468033
            -5284625 -102958097 -1080816508</internalNodes>
          <leafValues>
            -7.7888542413711548e-001 1.5712630748748779e-001</leafValues></_>
        <_>
          <internalNodes>
            0 -1 50 1374152448 290453487 -586689707 -21234465 -203954177
            1439427544 -6558977 1979711487</internalNodes>
          <leafValues>
            -6.9233787059783936e-001 3.1376641988754272e-001</leafValues></_>
        <_>
          <internalNodes>
            0 -1 68 926433140 1054348729 -707313677 -1644236355
            2078113773 913420479 -1146144003 -1107411284</internalNodes>
          <leafValues>
            -6.1706387996673584e-001 3.8828140497207642e-001</leafValues></_>
        <_>
          <internalNodes>
            0 -1 10 -69206289 -339485749 -246228832 -32012037 1070790223
            57025611 -777394618 -143130825</internalNodes>
          <leafValues>
            -4.8539492487907410e-001 5.4464203119277954e-001</leafValues></_></weakClassifiers></_>
    <!-- stage 3 -->
    <_>
      <maxWeakCount>5</maxWeakCount>
      <stageThreshold>-1.5751010179519653e+000</stageThreshold>
      <weakClassifiers>
        <_>
          <internalNodes>
            0 -1 32 -774374417 -137919525 1535627711 -171183201
            -644875825 -615791448 -573702181 -1</internalNodes>
          <leafValues>
            -8.4326779842376709e-001 -3.4666664898395538e-002</leafValues></_>
        <_>
          <internalNodes>
            0 -1 3 1928394739 -540311082 -602809889 -10915565 1568874987
            -75110010 60488399 1068577623</internalNodes>
          <leafValues>
            -6.5310537815093994e-001 2.7889502048492432e-001</leafValues></_>
        <_>
          <internalNodes>
            0 -1 81 -672143638 -2053646097 1485165730 680498163
            1318522439 340361929 961511847 -788532465</internalNodes>
          <leafValues>
            -5.5570828914642334e-001 4.4018113613128662e-001</leafValues></_>
        <_>
          <internalNodes>
            0 -1 49 344197200 -170143547 -1823356421 2111062101
            -1148277281 -40886134 -1031538179 134750444</internalNodes>
          <leafValues>
            -6.7928266525268555e-001 3.5109460353851318e-001</leafValues></_>
        <_>
          <internalNodes>
            0 -1 22 1058275752 -1251573647 1561363855 -1626009162
            1502164217 715135146 2073742079 1574451336</internalNodes>
          <leafValues>
            -5.8433836698532104e-001 4.3138900399208069e-001</leafValues></_></weakClassifiers></_>
    <!-- stage 4 -->
    <_>
      <maxWeakCount>4</maxWeakCount>
      <stageThreshold>-1.4642971754074097e+000</stageThreshold>
      <weakClassifiers>
        <_>
          <internalNodes>
            0 -1 13 -2359313 -319817889 -254805277 -150994945 -141033625
            1197210455 -33557833 -134218753</internalNodes>
          <leafValues>
            -8.7999999523162842e-001 -1.8412698805332184e-001</leafValues></_>
        <_>
          <internalNodes>
            0 -1 60 -403177489 1976565759 -1485312286 -455127553
            1936162647 2007746687 -5259401 -50331665</internalNodes>
          <leafValues>
            -6.5860480070114136e-001 3.2128861546516418e-001</leafValues></_>
        <_>
          <internalNodes>
            0 -1 73 -1074954449 687865343 -295698490 -1360007713
            -67109505 217839615 -201329804 1962932077</internalNodes>
          <leafValues>
            -7.7640497684478760e-001 2.8772869706153870e-001</leafValues></_>
        <_>
          <internalNodes>
            0 -1 38 607398665 -807405569 -6291489 -1076365827
            -1074790689 -1077940417 -1212286985 207883516</internalNodes>
          <leafValues>
            -8.2505381107330322e-001 2.5866344571113586e-001</leafValues></_></weakClassifiers></_>
    <!-- stage 5 -->
    <_>
      <maxWeakCount>5</maxWeakCount>
      <stageThreshold>-1.8617672920227051e+000</stageThreshold>
      <weakClassifiers>
        <_>
          <internalNodes>
            0 -1 16 -33554449 -808456209 -203590494 -623903761
            -210240649 1199033931 -134229549 -134217745</internalNodes>
          <leafValues>
            -8.8212180137634277e-001 -1.6932907700538635e-001</leafValues></_>
        <_>
          <internalNodes>
            0 -1 82 -1056913 1682570223 1524068902 -487850249
            -1209008305 1887695743 -158863289 -253755393</internalNodes>
          <leafValues>
            -6.8182224035263062e-001 3.0809545516967773e-001</leafValues></_>
        <_>
          <internalNodes>
            0 -1 43 -540690 -252855809 -271186 -270222001 -151535745
            1978769147 -268962977 -151136321</internalNodes>
          <leafValues>
            -7.0882046222686768e-001 3.6132410168647766e-001</leafValues></_>
        <_>
          <internalNodes>
            0 -1 7 -53547025 -289546273 -170004497 -18878485 2004183669
            2111290239 -147328137 -1638401</internalNodes>
          <leafValues>
            -5.3233277797698975e-001 5.1784169673919678e-001</leafValues></_>
        <_>
          <internalNodes>
            0 -1 26 -327897106 746518271 -71332314 -285283154 1994883071
            1979186063 -71335937 553070348</internalNodes>
          <leafValues>
            -8.1963723897933960e-001 3.0434715747833252e-001</leafValues></_></weakClassifiers></_>
    <!-- stage 6 -->
    <_>
      <maxWeakCount>6</maxWeakCount>
      <stageThreshold>-1.4757038354873657e+000</stageThreshold>
      <weakClassifiers>
        <_>
          <internalNodes>
            0 -1 46 -151519249 -255331365 -93203721 -581706769
            -309862457 -104738229 -74450213 -33555521</internalNodes>
          <leafValues>
            -8.3619630336761475e-001 -1.7619048058986664e-001</leafValues></_>
        <_>
          <internalNodes>
            0 -1 20 -1348682532 1029363139 -1086486083 1071338845
            632845311 1065458059 -72778755 -1095758888</internalNodes>
          <leafValues>
            -6.4240759611129761e-001 1.7801561951637268e-001</leafValues></_>
        <_>
          <internalNodes>
            0 -1 33 551794438 1743511445 -707005513 -11027459 1205828463
            1424208283 -82837538 -478707841</internalNodes>
          <leafValues>
            -7.8522467613220215e-001 2.4572828412055969e-001</leafValues></_>
        <_>
          <internalNodes>
            0 -1 61 1808879566 -1345330273 1985216004 -287537153
            1916793671 972787627 -1184910861 -436208161</internalNodes>
          <leafValues>
            -5.9545767307281494e-001 3.3689922094345093e-001</leafValues></_>
        <_>
          <internalNodes>
            0 -1 30 818293905 -149520951 -1824663041 -100723274
            726728185 -1410602581 578923003 213387584</internalNodes>
          <leafValues>
            -7.4518060684204102e-001 3.0268147587776184e-001</leafValues></_>
        <_>
          <internalNodes>
            0 -1 77 -38273779 213883370 -696020838 -222391721 -106439922
            539559944 -35395105 -734530785</internalNodes>
          <leafValues>
            -4.9455267190933228e-001 4.8037120699882507e-001</leafValues></_></weakClassifiers></_>
    <!-- stage 7 -->
    <_>
      <maxWeakCount>6</maxWeakCount>
      <stageThreshold>-1.7451320886611938e+000</stageThreshold>
      <weakClassifiers>
        <_>
          <internalNodes>
            0 -1 62 -136315395 -1109559811 -1756242467 -12602465
            999644637 -51837745 -1348768769 -3186945</internalNodes>
          <leafValues>
            -8.3489096164703369e-001 -2.5531914830207825e-001</leafValues></_>
        <_>
          <internalNodes>
            0 -1 6 -857217526 1289537935 -47723980 -136579665 2022140782
            1080548473 -489195790 -144183041</internalNodes>
          <leafValues>
            -6.6079789400100708e-001 1.0206463187932968e-001</leafValues></_>
        <_>
          <internalNodes>
            0 -1 47 302526252 -201582117 -1382213150 -2246164 1663924861
            1938407848 -472130580 -1603531516</internalNodes>
          <leafValues>
            -7.5864946842193604e-001 2.0029091835021973e-001</leafValues></_>
        <_>
          <internalNodes>
            0 -1 74 1040183855 612760015 -2070220154 -1500728853
            2074082108 611912047 -102499616 615479735</internalNodes>
          <leafValues>
            -6.8556267023086548e-001 2.6660951972007751e-001</leafValues></_>
        <_>
          <internalNodes>
            0 -1 15 648425382 1062632587 2130920831 -575260343
            1945578479 -91698033 367748087 913532791</internalNodes>
          <leafValues>
            -8.0269390344619751e-001 1.8968442082405090e-001</leafValues></_>
        <_>
          <internalNodes>
            0 -1 8 1743105962 1192219587 -585639901 -410090613
            2000810497 117640211 -176426569 2069312375</internalNodes>
          <leafValues>
            -6.8435913324356079e-001 2.4222192168235779e-001</leafValues></_></weakClassifiers></_>
    <!-- stage 8 -->
    <_>
      <maxWeakCount>6</maxWeakCount>
      <stageThreshold>-1.5435523986816406e+000</stageThreshold>
      <weakClassifiers>
        <_>
          <internalNodes>
            0 -1 44 -1 1067241983 -109601795 -1076383267 -1278979
            -403234 -576038401 -4203537</internalNodes>
          <leafValues>
            -8.2294487953186035e-001 -1.8662953376770020e-001</leafValues></_>
        <_>
          <internalNodes>
            0 -1 5 -275790033 -271584801 -617113268 -91270273 1630434653
            1700513930 -19929161 -236192385</internalNodes>
          <leafValues>
            -6.1599439382553101e-001 1.4885048568248749e-001</leafValues></_>
        <_>
          <internalNodes>
            0 -1 42 322707180 668909371 -154404694 1021157535 2074835523
            2039655423 -1146651698 -1279523216</internalNodes>
          <leafValues>
            -7.1133458614349365e-001 2.2198100388050079e-001</leafValues></_>
        <_>
          <internalNodes>
            0 -1 40 -1573242 621261263 -457451910 -421660434 991420877
            1228538621 -681613057 585438839</internalNodes>
          <leafValues>
            -6.8970757722854614e-001 2.4797588586807251e-001</leafValues></_>
        <_>
          <internalNodes>
            0 -1 63 605029728 2125215967 471422815 2145243516 461466623
            -6305781 2040224253 76552352</internalNodes>
          <leafValues>
            -8.9028108119964600e-001 2.1433967351913452e-001</leafValues></_>
        <_>
          <internalNodes>
            0 -1 35 -1125285906 -1344071169 -42739010 1396497915
            -217419815 2111537323 -893069089 -404558872</internalNodes>
          <leafValues>
            -5.5652934312820435e-001 3.1571105122566223e-001</leafValues></_></weakClassifiers></_>
    <!-- stage 9 -->
    <_>
      <maxWeakCount>6</maxWeakCount>
      <stageThreshold>-1.9681816101074219e+000</stageThreshold>
      <weakClassifiers>
        <_>
          <internalNodes>
            0 -1 65 -590151755 499046365 -682494465 -2370883 -7733299
            -105932151 -626262531 -1125647703</internalNodes>
          <leafValues>
            -8.4274709224700928e-001 -3.0851063132286072e-001</leafValues></_>
        <_>
          <internalNodes>
            0 -1 29 1073232380 1073490908 1443110394 -1610849380
            -1157545987 -5520903 -1145951237 -1075299988</internalNodes>
          <leafValues>
            -6.4894181489944458e-001 1.0080952942371368e-001</leafValues></_>
        <_>
          <internalNodes>
            0 -1 80 -151804025 1158674255 -1068973616 1893166775
            -316934325 1486562611 -1286745373 -973357125</internalNodes>
          <leafValues>
            -4.5135101675987244e-001 3.7889245152473450e-001</leafValues></_>
        <_>
          <internalNodes>
            0 -1 52 -152079572 1036711919 -661170718 -18096161
            2074178383 1168746687 1884017495 1375174555</internalNodes>
          <leafValues>
            -7.0857912302017212e-001 2.4299679696559906e-001</leafValues></_>
        <_>
          <internalNodes>
            0 -1 4 -25137752 -674890393 -749678793 -20279150 1690374007
            -1213892565 1984620770 2066970455</internalNodes>
          <leafValues>
            -6.0429471731185913e-001 2.9537042975425720e-001</leafValues></_>
        <_>
          <internalNodes>
            0 -1 53 -587224264 1568526840 -788528864 510065297
            -1448264963 492128923 -1365279812 433933865</internalNodes>
          <leafValues>
            -5.6350892782211304e-001 3.0942213535308838e-001</leafValues></_></weakClassifiers></_>
    <!-- stage 10 -->
    <_>
      <maxWeakCount>6</maxWeakCount>
      <stageThreshold>-1.7864022254943848e+000</stageThreshold>
      <weakClassifiers>
        <_>
          <internalNodes>
            0 -1 66 1065236477 -543287851 1061533435 -1107331074
            -71289860 -1141303905 -1104602115 -1099537</internalNodes>
          <leafValues>
            -8.5774058103561401e-001 -4.1871920228004456e-001</leafValues></_>
        <_>
          <internalNodes>
            0 -1 71 1286599816 805958101 -564801057 1881145311
            1435626191 -1903458143 -175240257 -41943617</internalNodes>
          <leafValues>
            -6.4349383115768433e-001 8.9437596499919891e-002</leafValues></_>
        <_>
          <internalNodes>
            0 -1 13 -4464758 -2066820315 -995522014 -1065945123
            1945590339 1193263663 -242616668 1425467255</internalNodes>
          <leafValues>
            -7.6961892843246460e-001 1.8116556107997894e-001</leafValues></_>
        <_>
          <internalNodes>
            0 -1 58 76569904 902568339 -718548481 -6598437 -2089233409
            -363673207 -259002401 230428464</internalNodes>
          <leafValues>
            -8.3268588781356812e-001 1.9007971882820129e-001</leafValues></_>
        <_>
          <internalNodes>
            0 -1 55 -325208594 692306317 -1786848046 1956610805
            1545027142 -15730581 -257758477 349694803</internalNodes>
          <leafValues>
            -6.4010864496231079e-001 2.3691321909427643e-001</leafValues></_>
        <_>
          <internalNodes>
            0 -1 69 400301868 1064849874 -586146860 1039930734 160311521
            -341469049 -1305434135 1026829300</internalNodes>
          <leafValues>
            -7.5788271427154541e-001 2.0154863595962524e-001</leafValues></_></weakClassifiers></_>
    <!-- stage 11 -->
    <_>
      <maxWeakCount>6</maxWeakCount>
      <stageThreshold>-1.6706615686416626e+000</stageThreshold>
      <weakClassifiers>
        <_>
          <internalNodes>
            0 -1 25 -51642385 340127789 -189032201 -35716133 -880428309
            -276564839 -1082017109 -22303745</internalNodes>
          <leafValues>
            -8.5025638341903687e-001 -4.1456952691078186e-001</leafValues></_>
        <_>
          <internalNodes>
            0 -1 76 -303076090 551014390 -132588334 1376342495
            -1303905922 1856231529 -359441761 -169100033</internalNodes>
          <leafValues>
            -6.2345737218856812e-001 7.4325263500213623e-002</leafValues></_>
        <_>
          <internalNodes>
            0 -1 57 -153098742 1605032919 -636234778 -470489121
            1930648165 1701428139 -543590106 1148680039</internalNodes>
          <leafValues>
            -7.9777967929840088e-001 1.5489369630813599e-001</leafValues></_>
        <_>
          <internalNodes>
            0 -1 9 1140764578 1800061706 1427488608 -593706866
            1463114050 1797670945 697922263 1744127815</internalNodes>
          <leafValues>
            -8.2502037286758423e-001 1.9773691892623901e-001</leafValues></_>
        <_>
          <internalNodes>
            0 -1 17 -1422852107 -37202469 -267258923 -36345001 -99429381
            -370316926 -1962353669 -1893720976</internalNodes>
          <leafValues>
            -4.4964247941970825e-001 3.4617173671722412e-001</leafValues></_>
        <_>
          <internalNodes>
            0 -1 54 663197570 1905887674 -2012509413 -78443590
            -774671643 463704243 -375682850 -1257247762</internalNodes>
          <leafValues>
            -5.3562283515930176e-001 2.9587727785110474e-001</leafValues></_></weakClassifiers></_>
    <!-- stage 12 -->
    <_>
      <maxWeakCount>7</maxWeakCount>
      <stageThreshold>-1.6956490278244019e+000</stageThreshold>
      <weakClassifiers>
        <_>
          <internalNodes>
            0 -1 34 -681787395 -2371105 -1815014401 -548023809 -74790657
            -72630644 -1719538177 -5574770</internalNodes>
          <leafValues>
            -8.0729168653488159e-001 -4.4642858207225800e-002</leafValues></_>
        <_>
          <internalNodes>
            0 -1 24 -158945428 341442521 -624822582 -1084635143
            2146164732 -1081804293 -3479556 -1096305190</internalNodes>
          <leafValues>
            -6.1512619256973267e-001 1.1777795851230621e-001</leafValues></_>
        <_>
          <internalNodes>
            0 -1 37 -552072388 -1612746421 -1315011331 -1617068763
            2074062780 -1715912551 2073715165 -1929614856</internalNodes>
          <leafValues>
            -4.2579534649848938e-001 3.7067845463752747e-001</leafValues></_>
        <_>
          <internalNodes>
            0 -1 36 -1082401938 -2078961255 -1859006546 -232924702
            1612585815 1001488617 2074732919 1976367662</internalNodes>
          <leafValues>
            -8.1665652990341187e-001 1.8939922749996185e-001</leafValues></_>
        <_>
          <internalNodes>
            0 -1 70 1291789320 609342371 -33381921 881914063 -729204277
            -56376441 -375047992 -1404318273</internalNodes>
          <leafValues>
            -6.2609827518463135e-001 2.5742229819297791e-001</leafValues></_>
        <_>
          <internalNodes>
            0 -1 64 691846573 -1244322430 -1684825707 -243068277
            637685500 -127301334 -293213713 -131061728</internalNodes>
          <leafValues>
            -4.2281228303909302e-001 3.8076114654541016e-001</leafValues></_>
        <_>
          <internalNodes>
            0 -1 11 -1755342166 -1953513266 -1877965070 2122682435
            -1371308735 319441671 583799844 1959487287</internalNodes>
          <leafValues>
            -7.2562706470489502e-001 2.4942676723003387e-001</leafValues></_></weakClassifiers></_>
    <!-- stage 13 -->
    <_>
      <maxWeakCount>8</maxWeakCount>
      <stageThreshold>-1.7444378137588501e+000</stageThreshold>
      <weakClassifiers>
        <_>
          <internalNodes>
            0 -1 44 -614466561 530375067 -139340419 -4721253 -87102979
            -543178614 -585425925 -71565877</internalNodes>
          <leafValues>
            -8.0960750579833984e-001 -1.3533835113048553e-001</leafValues></_>
        <_>
          <internalNodes>
            0 -1 27 802955181 1024328139 -133577317 -136406569 64486395
            -935370550 -90610757 -55134770</internalNodes>
          <leafValues>
            -5.5719161033630371e-001 1.4386832714080811e-001</leafValues></_>
        <_>
          <internalNodes>
            0 -1 78 -587495160 15448325 -166081965 311202737 -73176307
            1225672975 -520377355 1308089219</internalNodes>
          <leafValues>
            -5.7627213001251221e-001 2.3031832277774811e-001</leafValues></_>
        <_>
          <internalNodes>
            0 -1 72 1438197928 2110023768 -1721384521 952884859
            231406227 -1095139132 -1154700059 1026045268</internalNodes>
          <leafValues>
            -7.1403473615646362e-001 1.9785781204700470e-001</leafValues></_>
        <_>
          <internalNodes>
            0 -1 19 -521376090 71747991 -939291925 -287604521 1680989182
            495552677 -243048851 99564194</internalNodes>
          <leafValues>
            -7.2310185432434082e-001 2.1335573494434357e-001</leafValues></_>
        <_>
          <internalNodes>
            0 -1 1 1755475174 395776114 -536230857 -686600141 1342667123
            -889025651 814339572 2136167005</internalNodes>
          <leafValues>
            -6.3079202175140381e-001 2.3370292782783508e-001</leafValues></_>
        <_>
          <internalNodes>
            0 -1 21 979111337 1053481560 1546424536 -1612969766
            1518889213 984201426 -68337422 -1145146939</internalNodes>
          <leafValues>
            -4.9836802482604980e-001 3.0301892757415771e-001</leafValues></_>
        <_>
          <internalNodes>
            0 -1 75 -604009425 569360188 -336629889 -151257173 -33572875
            2138570751 -528641 -494927876</internalNodes>
          <leafValues>
            -3.4824365377426147e-001 4.6616086363792419e-001</leafValues></_></weakClassifiers></_>
    <!-- stage 14 -->
    <_>
      <maxWeakCount>8</maxWeakCount>
      <stageThreshold>-1.6144545078277588e+000</stageThreshold>
      <weakClassifiers>
        <_>
          <internalNodes>
            0 -1 28 -574948873 -69523053 152670591 -652479033 -628363013
            -4554470 -539045397 -4177</internalNodes>
          <leafValues>
            -8.0091536045074463e-001 -3.6862873864507151e-017</leafValues></_>
        <_>
          <internalNodes>
            0 -1 0 -927858393 -1879439205 1087438239 1878966410
            692866830 2071986254 -1549605893 997414247</internalNodes>
          <leafValues>
            -6.6316837072372437e-001 1.5842622146010399e-002</leafValues></_>
        <_>
          <internalNodes>
            0 -1 67 1621147196 1972761437 1342177799 1212126555
            2114166721 -308344803 -1807795461 207697714</internalNodes>
          <leafValues>
            -5.9046393632888794e-001 2.0826934278011322e-001</leafValues></_>
        <_>
          <internalNodes>
            0 -1 51 786919247 1685575644 -653661257 -74999029 1756322067
            110166155 -1699240985 1708788004</internalNodes>
          <leafValues>
            -6.0667878389358521e-001 2.2183109819889069e-001</leafValues></_>
        <_>
          <internalNodes>
            0 -1 79 -518266077 294491169 -1811558378 1376932039
            1552748034 994739304 1384775619 552587571</internalNodes>
          <leafValues>
            -4.7728264331817627e-001 3.2162329554557800e-001</leafValues></_>
        <_>
          <internalNodes>
            0 -1 14 -1034755891 -1621323520 84429264 -644017901
            1484788404 1770109259 -343844469 2143569969</internalNodes>
          <leafValues>
            -4.8521611094474792e-001 3.1620520353317261e-001</leafValues></_>
        <_>
          <internalNodes>
            0 -1 41 -153635226 269602184 1242848255 -10751019
            -1308571261 -133791552 -486352076 738557303</internalNodes>
          <leafValues>
            -5.2535355091094971e-001 3.0938005447387695e-001</leafValues></_>
        <_>
          <internalNodes>
            0 -1 56 -1080439380 106234084 -2147389385 1656834567
            499880282 -1333108691 -1028779029 550265317</internalNodes>
          <leafValues>
            -5.7053583860397339e-001 2.7633658051490784e-001</leafValues></_></weakClassifiers></_></stages>
  <features>
    <_>
      <rect>
        0 0 1 1</rect></_>
    <_>
      <rect>
        0 0 2 4</rect></_>
    <_>
      <rect>
        0 0 2 7</rect></_>
    <_>
      <rect>
        0 0 3 1</rect></_>
    <_>
      <rect>
        0 1 2 1</rect></_>
    <_>
      <rect>
        0 3 1 1</rect></_>
    <_>
      <rect>
        0 3 1 2</rect></_>
    <_>
      <rect>
        0 5 2 2</rect></_>
    <_>
      <rect>
        0 5 2 4</rect></_>
    <_>
      <rect>
        0 6 2 5</rect></_>
    <_>
      <rect>
        0 9 1 2</rect></_>
    <_>
      <rect>
        0 9 1 3</rect></_>
    <_>
      <rect>
        0 12 1 3</rect></_>
    <_>
      <rect>
        0 16 1 2</rect></_>
    <_>
      <rect>
        0 21 3 1</rect></_>
    <_>
      <rect>
        1 0 3 3</rect></_>
    <_>
      <rect>
        1 13 1 2</rect></_>
    <_>
      <rect>
        2 0 2 1</rect></_>
    <_>
      <rect>
        2 0 6 1</rect></_>
    <_>
      <rect>
        2 4 4 4</rect></_>
    <_>
      <rect>
        2 21 5 1</rect></_>
    <_>
      <rect>
        3 21 1 1</rect></_>
    <_>
      <rect>
        3 21 7 1</rect></_>
    <_>
      <rect>
        4 1 6 3</rect></_>
    <_>
      <rect>
        4 4 3 2</rect></_>
    <_>
      <rect>
        4 4 3 4</rect></_>
    <_>
      <rect>
        4 5 4 3</rect></_>
    <_>
      <rect>
        4 7 2 1</rect></_>
    <_>
      <rect>
        4 8 5 2</rect></_>
    <_>
      <rect>
        5 21 2 1</rect></_>
    <_>
      <rect>
        6 0 3 1</rect></_>
    <_>
      <rect>
        6 0 4 1</rect></_>
    <_>
      <rect>
        6 0 4 6</rect></_>
    <_>
      <rect>
        6 0 4 7</rect></_>
    <_>
      <rect>
        6 8 5 1</rect></_>
    <_>
      <rect>
        6 13 4 2</rect></_>
    <_>
      <rect>
        6 18 5 1</rect></_>
    <_>
      <rect>
        6 21 6 1</rect></_>
    <_>
      <rect>
        7 1 1 1</rect></_>
    <_>
      <rect>
        7 1 4 7</rect></_>
    <_>
      <rect>
        7 5 3 6</rect></_>
    <_>
      <rect>
        7 6 2 4</rect></_>
    <_>
      <rect>
        7 7 1 1</rect></_>
    <_>
      <rect>
        7 16 4 2</rect></_>
    <_>
      <rect>
        7 21 2 1</rect></_>
    <_>
      <rect>
        8 1 3 7</rect></_>
    <_>
      <rect>
        8 2 2 5</rect></_>
    <_>
      <rect>
        8 8 4 1</rect></_>
    <_>
      <rect>
        8 13 3 3</rect></_>
    <_>
      <rect>
        9 0 5 1</rect></_>
    <_>
      <rect>
        9 0 5 6</rect></_>
    <_>
      <rect>
        9 3 3 1</rect></_>
    <_>
      <rect>
        9 13 3 3</rect></_>
    <_>
      <rect>
        9 18 5 2</rect></_>
    <_>
      <rect>
        10 2 4 5</rect></_>
    <_>
      <rect>
        10 11 2 3</rect></_>
    <_>
      <rect>
        10 12 1 3</rect></_>
    <_>
      <rect>
        10 16 4 2</rect></_>
    <_>
      <rect>
        11 0 1 1</rect></_>
    <_>
      <rect>
        11 0 2 1</rect></_>
    <_>
      <rect>
        11 12 2 3</rect></_>
    <_>
      <rect>
        11 13 1 1</rect></_>
    <_>
      <rect>
        12 21 2 1</rect></_>
    <_>
      <rect>
        14 0 2 1</rect></_>
    <_>
      <rect>
        14 8 2 1</rect></_>
    <_>
      <rect>
        15 8 3 1</rect></_>
    <_>
      <rect>
        15 21 2 1</rect></_>
    <_>
      <rect>
        16 7 2 4</rect></_>
    <_>
      <rect>
        16 21 2 1</rect></_>
    <_>
      <rect>
        17 21 1 1</rect></_>
    <_>
      <rect>
        18 1 2 5</rect></_>
    <_>
      <rect>
        18 2 2 5</rect></_>
    <_>
      <rect>
        18 4 1 6</rect></_>
    <_>
      <rect>
        18 14 2 1</rect></_>
    <_>
      <rect>
        18 16 2 2</rect></_>
    <_>
      <rect>
        21 2 1 1</rect></_>
    <_>
      <rect>
        21 3 1 1</rect></_>
    <_>
      <rect>
        21 4 1 2</rect></_>
    <_>
      <rect>
        21 7 1 2</rect></_>
    <_>
      <rect>
        21 8 1 2</rect></_>
    <_>
      <rect>
        21 10 1 2</rect></_>
    <_>
      <rect>
        21 13 1 3</rect></_>
    <_>
      <rect>
        21 15 1 2</rect></_></features></cascade>
</opencv_storage>
